Language model created by QuickLM on Tue Jan  2 01:21:26 EST 2018
Copyright (c) 1996-2010 Carnegie Mellon University and Alexander I. Rudnicky

The model is in standard ARPA format, designed by Doug Paul while he was at MITRE.

The code that was used to produce this language model is available in Open Source.
Please visit http://www.speech.cs.cmu.edu/tools/ for more information

The (fixed) discount mass is 0.5. The backoffs are computed using the ratio method.
This model based on a corpus of 27 sentences and 36 words

\data\
ngram 1=36
ngram 2=62
ngram 3=40

\1-grams:
-0.8474 </s> -0.3010
-0.8474 <s> -0.2345
-2.2788 BLUE -0.2345
-2.2788 CAN -0.2987
-2.2788 COLOR -0.2345
-2.2788 DAY -0.2941
-2.2788 EIGHT -0.2345
-2.2788 FIVE -0.2345
-2.2788 FOUR -0.2345
-2.2788 FRIDAY -0.2345
-2.2788 GREEN -0.2345
-2.2788 HELP -0.2987
-1.8016 IS -0.2941
-1.9777 IT -0.2345
-2.2788 ME -0.2345
-2.2788 MONDAY -0.2345
-2.2788 MY -0.2987
-2.2788 NAME -0.2345
-2.2788 NINE -0.2345
-2.2788 NUMBER -0.2345
-2.2788 ONE -0.2345
-2.2788 RED -0.2345
-2.2788 SATURDAY -0.2345
-2.2788 SEVEN -0.2345
-2.2788 SIX -0.2345
-2.2788 SUNDAY -0.2345
-2.2788 THREE -0.2345
-2.2788 THURSDAY -0.2345
-2.2788 TIME -0.2941
-2.2788 TUESDAY -0.2345
-2.2788 TWO -0.2345
-2.2788 WEDNESDAY -0.2345
-1.5798 WHAT -0.2847
-2.2788 YELLOW -0.2345
-2.2788 YOU -0.2987
-2.2788 ZERO -0.2345

\2-grams:
-1.7324 <s> BLUE 0.0000
-1.7324 <s> CAN 0.0000
-1.7324 <s> EIGHT 0.0000
-1.7324 <s> FIVE 0.0000
-1.7324 <s> FOUR 0.0000
-1.7324 <s> FRIDAY 0.0000
-1.7324 <s> GREEN 0.0000
-1.7324 <s> MONDAY 0.0000
-1.7324 <s> NINE 0.0000
-1.7324 <s> ONE 0.0000
-1.7324 <s> RED 0.0000
-1.7324 <s> SATURDAY 0.0000
-1.7324 <s> SEVEN 0.0000
-1.7324 <s> SIX 0.0000
-1.7324 <s> SUNDAY 0.0000
-1.7324 <s> THREE 0.0000
-1.7324 <s> THURSDAY 0.0000
-1.7324 <s> TUESDAY 0.0000
-1.7324 <s> TWO 0.0000
-1.7324 <s> WEDNESDAY 0.0000
-1.0334 <s> WHAT 0.0000
-1.7324 <s> YELLOW 0.0000
-1.7324 <s> ZERO 0.0000
-0.3010 BLUE </s> -0.3010
-0.3010 CAN YOU 0.0000
-0.3010 COLOR </s> -0.3010
-0.3010 DAY IS -0.1249
-0.3010 EIGHT </s> -0.3010
-0.3010 FIVE </s> -0.3010
-0.3010 FOUR </s> -0.3010
-0.3010 FRIDAY </s> -0.3010
-0.3010 GREEN </s> -0.3010
-0.3010 HELP ME 0.0000
-0.4771 IS IT 0.0000
-0.7782 IS MY 0.0000
-0.3010 IT </s> -0.3010
-0.3010 ME </s> -0.3010
-0.3010 MONDAY </s> -0.3010
-0.3010 MY NAME 0.0000
-0.3010 NAME </s> -0.3010
-0.3010 NINE </s> -0.3010
-0.3010 NUMBER </s> -0.3010
-0.3010 ONE </s> -0.3010
-0.3010 RED </s> -0.3010
-0.3010 SATURDAY </s> -0.3010
-0.3010 SEVEN </s> -0.3010
-0.3010 SIX </s> -0.3010
-0.3010 SUNDAY </s> -0.3010
-0.3010 THREE </s> -0.3010
-0.3010 THURSDAY </s> -0.3010
-0.3010 TIME IS -0.1249
-0.3010 TUESDAY </s> -0.3010
-0.3010 TWO </s> -0.3010
-0.3010 WEDNESDAY </s> -0.3010
-1.0000 WHAT COLOR 0.0000
-1.0000 WHAT DAY 0.0000
-1.0000 WHAT IS -0.2218
-1.0000 WHAT NUMBER 0.0000
-1.0000 WHAT TIME 0.0000
-0.3010 YELLOW </s> -0.3010
-0.3010 YOU HELP 0.0000
-0.3010 ZERO </s> -0.3010

\3-grams:
-0.3010 <s> BLUE </s>
-0.3010 <s> CAN YOU
-0.3010 <s> EIGHT </s>
-0.3010 <s> FIVE </s>
-0.3010 <s> FOUR </s>
-0.3010 <s> FRIDAY </s>
-0.3010 <s> GREEN </s>
-0.3010 <s> MONDAY </s>
-0.3010 <s> NINE </s>
-0.3010 <s> ONE </s>
-0.3010 <s> RED </s>
-0.3010 <s> SATURDAY </s>
-0.3010 <s> SEVEN </s>
-0.3010 <s> SIX </s>
-0.3010 <s> SUNDAY </s>
-0.3010 <s> THREE </s>
-0.3010 <s> THURSDAY </s>
-0.3010 <s> TUESDAY </s>
-0.3010 <s> TWO </s>
-0.3010 <s> WEDNESDAY </s>
-1.0000 <s> WHAT COLOR
-1.0000 <s> WHAT DAY
-1.0000 <s> WHAT IS
-1.0000 <s> WHAT NUMBER
-1.0000 <s> WHAT TIME
-0.3010 <s> YELLOW </s>
-0.3010 <s> ZERO </s>
-0.3010 CAN YOU HELP
-0.3010 DAY IS IT
-0.3010 HELP ME </s>
-0.3010 IS IT </s>
-0.3010 IS MY NAME
-0.3010 MY NAME </s>
-0.3010 TIME IS IT
-0.3010 WHAT COLOR </s>
-0.3010 WHAT DAY IS
-0.3010 WHAT IS MY
-0.3010 WHAT NUMBER </s>
-0.3010 WHAT TIME IS
-0.3010 YOU HELP ME

\end\
